<?xml version="1.0"?>
<opencv_storage>
    <cascade>
        <stageType>BOOST</stageType>
        <featureType>LBP</featureType>
        <height>13</height>
        <width>52</width>
        <stageParams>
            <boostType>GAB</boostType>
            <minHitRate>9.9500000476837158e-01</minHitRate>
            <maxFalseAlarm>4.4999998807907104e-01</maxFalseAlarm>
            <weightTrimRate>9.4999999999999996e-01</weightTrimRate>
            <maxDepth>1</maxDepth>
            <maxWeakCount>100</maxWeakCount>
        </stageParams>
        <featureParams>
            <maxCatCount>256</maxCatCount>
            <featSize>1</featSize>
        </featureParams>
        <stageNum>13</stageNum>
        <stages>
            <!-- stage 0 -->
            <_>
                <maxWeakCount>4</maxWeakCount>
                <stageThreshold>-1.7355324029922485e+00</stageThreshold>
                <weakClassifiers>
                    <_>
                        <internalNodes>
                            0 -1 35 285218293 -437251 2106974207 -15093249 -1196582401
                            -4547617 -1433748481 -1074067060
                        </internalNodes>
                        <leafValues>
                            -8.5741442441940308e-01 7.6767677068710327e-01
                        </leafValues>
                    </_>
                    <_>
                        <internalNodes>
                            0 -1 17 361533182 -6548616 -1660281609 -1076618824
                            -1142313217 -1078092051 -1186407173 -1350039412
                        </internalNodes>
                        <leafValues>
                            -7.8620910644531250e-01 6.3828861713409424e-01
                        </leafValues>
                    </_>
                    <_>
                        <internalNodes>
                            0 -1 47 269489493 -102817923 1073200989 895465724
                            -1078214929 -2195461 -1613103105 -1086579208
                        </internalNodes>
                        <leafValues>
                            -6.4112490415573120e-01 7.2972780466079712e-01
                        </leafValues>
                    </_>
                    <_>
                        <internalNodes>
                            0 -1 1 75768942 798261420 -594006281 -10609177 -1181091602
                            -1080063574 -1816484866 -1396924374
                        </internalNodes>
                        <leafValues>
                            -7.6062309741973877e-01 5.4921597242355347e-01
                        </leafValues>
                    </_>
                </weakClassifiers>
            </_>
            <!-- stage 1 -->
            <_>
                <maxWeakCount>4</maxWeakCount>
                <stageThreshold>-1.7935881614685059e+00</stageThreshold>
                <weakClassifiers>
                    <_>
                        <internalNodes>
                            0 -1 28 286268925 -2648867 893230591 -576892513 -1685538049
                            -67338054 -1145332801 -1080283716
                        </internalNodes>
                        <leafValues>
                            -8.3735221624374390e-01 7.0389610528945923e-01
                        </leafValues>
                    </_>
                    <_>
                        <internalNodes>
                            0 -1 40 290517084 -2256551 1965153757 -2129451 -576677187
                            -24258307 -1681343521 -1088944088
                        </internalNodes>
                        <leafValues>
                            -7.4648332595825195e-01 5.8787560462951660e-01
                        </leafValues>
                    </_>
                    <_>
                        <internalNodes>
                            0 -1 39 805310672 -1088718352 1565643955 -1073914371
                            -636866321 -541377478 -1088311041 998849419
                        </internalNodes>
                        <leafValues>
                            -8.1329220533370972e-01 4.8042726516723633e-01
                        </leafValues>
                    </_>
                    <_>
                        <internalNodes>
                            0 -1 32 337917144 2143097052 1024504927 -570877687 941136364
                            -337663941 -1165353987 -1080421544
                        </internalNodes>
                        <leafValues>
                            -6.5775555372238159e-01 6.0353958606719971e-01
                        </leafValues>
                    </_>
                </weakClassifiers>
            </_>
            <!-- stage 2 -->
            <_>
                <maxWeakCount>3</maxWeakCount>
                <stageThreshold>-1.0547423362731934e+00</stageThreshold>
                <weakClassifiers>
                    <_>
                        <internalNodes>
                            0 -1 24 -3152913 -2143043414 -1073250238 -355745333
                            -758389845 1090773002 -785919413 -67111425
                        </internalNodes>
                        <leafValues>
                            -8.3922982215881348e-01 5.7633137702941895e-01
                        </leafValues>
                    </_>
                    <_>
                        <internalNodes>
                            0 -1 70 -67109117 -384568766 201515008 -1066089533
                            -315897342 19005442 -192698624 -136848417
                        </internalNodes>
                        <leafValues>
                            -7.2058093547821045e-01 6.1556631326675415e-01
                        </leafValues>
                    </_>
                    <_>
                        <internalNodes>
                            0 -1 58 -806622678 -699760501 -500727294 42402841 -67014350
                            268652679 285954603 1399806975
                        </internalNodes>
                        <leafValues>
                            -7.9213780164718628e-01 5.0506836175918579e-01
                        </leafValues>
                    </_>
                </weakClassifiers>
            </_>
            <!-- stage 3 -->
            <_>
                <maxWeakCount>5</maxWeakCount>
                <stageThreshold>-1.3552292585372925e+00</stageThreshold>
                <weakClassifiers>
                    <_>
                        <internalNodes>
                            0 -1 0 -286588929 -2097665 -1 -9249 -3146753 -67109185
                            -262145 -269485125
                        </internalNodes>
                        <leafValues>
                            -7.9837399721145630e-01 6.2877696752548218e-01
                        </leafValues>
                    </_>
                    <_>
                        <internalNodes>
                            0 -1 19 -1343709188 -198662 -34693633 -1077105200 -35717185
                            -71394392 -65537 -1366815512
                        </internalNodes>
                        <leafValues>
                            -7.5707221031188965e-01 4.2258030176162720e-01
                        </leafValues>
                    </_>
                    <_>
                        <internalNodes>
                            0 -1 38 405804304 -71328040 -3541509 2009019903 -1400194200
                            -272958152 -1077190721 -1141110596
                        </internalNodes>
                        <leafValues>
                            -7.2574198246002197e-01 4.3008458614349365e-01
                        </leafValues>
                    </_>
                    <_>
                        <internalNodes>
                            0 -1 4 -274796818 -825299250 -332757532 -1882297777
                            -806423051 894649053 -1345623041 -8321
                        </internalNodes>
                        <leafValues>
                            -7.0994800329208374e-01 4.5483031868934631e-01
                        </leafValues>
                    </_>
                    <_>
                        <internalNodes>
                            0 -1 34 1065361144 -1079157128 1056823039 -1073833507
                            -1347650051 -221255 -84484393 -1352662360
                        </internalNodes>
                        <leafValues>
                            -6.8172484636306763e-01 4.8008030652999878e-01
                        </leafValues>
                    </_>
                </weakClassifiers>
            </_>
            <!-- stage 4 -->
            <_>
                <maxWeakCount>5</maxWeakCount>
                <stageThreshold>-2.2178804874420166e+00</stageThreshold>
                <weakClassifiers>
                    <_>
                        <internalNodes>
                            0 -1 67 -8390905 -545262225 -715394721 -10491905 -340007681
                            -408958649 -69468737 -17
                        </internalNodes>
                        <leafValues>
                            -7.7252924442291260e-01 5.7746475934982300e-01
                        </leafValues>
                    </_>
                    <_>
                        <internalNodes>
                            0 -1 55 -1205862384 2080323583 -142641699 1567581525
                            -1075055697 -1073811457 -75502625 -1108801479
                        </internalNodes>
                        <leafValues>
                            -7.5227910280227661e-01 3.3602192997932434e-01
                        </leafValues>
                    </_>
                    <_>
                        <internalNodes>
                            0 -1 12 -4195345 -1596466689 -1181972 -1527255073
                            -1145442433 1075045403 -214699227 -184549417
                        </internalNodes>
                        <leafValues>
                            -7.2866684198379517e-01 4.0690001845359802e-01
                        </leafValues>
                    </_>
                    <_>
                        <internalNodes>
                            0 -1 51 484445340 -1088640068 1573994167 -1074561028
                            2142576605 -68335108 464453627 -1082451459
                        </internalNodes>
                        <leafValues>
                            -6.6853284835815430e-01 4.4082641601562500e-01
                        </leafValues>
                    </_>
                    <_>
                        <internalNodes>
                            0 -1 50 -536100605 2147483575 -4097 -1 -268503041 -8193
                            -4204613 -1035213049
                        </internalNodes>
                        <leafValues>
                            -4.3143934011459351e-01 6.7711484432220459e-01
                        </leafValues>
                    </_>
                </weakClassifiers>
            </_>
            <!-- stage 5 -->
            <_>
                <maxWeakCount>6</maxWeakCount>
                <stageThreshold>-1.7964292764663696e+00</stageThreshold>
                <weakClassifiers>
                    <_>
                        <internalNodes>
                            0 -1 14 -570428161 -60883745 -243010337 -33554433 -67644417
                            -35982405 -3410945 -1049601
                        </internalNodes>
                        <leafValues>
                            -7.7333021163940430e-01 4.5945945382118225e-01
                        </leafValues>
                    </_>
                    <_>
                        <internalNodes>
                            0 -1 71 -3145974 -338699857 -58211840 -269485426 432793879
                            1089659611 -136320766 -151522389
                        </internalNodes>
                        <leafValues>
                            -6.5825635194778442e-01 4.3139454722404480e-01
                        </leafValues>
                    </_>
                    <_>
                        <internalNodes>
                            0 -1 11 -1165961476 -3745026 -569577729 -747240316
                            -1417089297 -38043462 1526840238 1046743050
                        </internalNodes>
                        <leafValues>
                            -7.0780426263809204e-01 3.9677599072456360e-01
                        </leafValues>
                    </_>
                    <_>
                        <internalNodes>
                            0 -1 36 -1073494014 -167779497 -778316033 -446713365
                            -398482961 1502536203 -745805077 -1071124145
                        </internalNodes>
                        <leafValues>
                            -5.2545911073684692e-01 5.5777955055236816e-01
                        </leafValues>
                    </_>
                    <_>
                        <internalNodes>
                            0 -1 30 276828368 -2525729 2136659391 -2411439 -1148536321
                            -4618086 1000799163 -1078190403
                        </internalNodes>
                        <leafValues>
                            -6.4925575256347656e-01 4.4957116246223450e-01
                        </leafValues>
                    </_>
                    <_>
                        <internalNodes>
                            0 -1 48 -9440518 991729226 -1765797556 454579118 2047030184
                            957378780 1866933480 2146435071
                        </internalNodes>
                        <leafValues>
                            -6.6766536235809326e-01 4.3443781137466431e-01
                        </leafValues>
                    </_>
                </weakClassifiers>
            </_>
            <!-- stage 6 -->
            <_>
                <maxWeakCount>6</maxWeakCount>
                <stageThreshold>-1.6078271865844727e+00</stageThreshold>
                <weakClassifiers>
                    <_>
                        <internalNodes>
                            0 -1 8 -18939905 -1080624169 -1841889313 1067096765
                            -655623685 -6626869 -341115397 -66561
                        </internalNodes>
                        <leafValues>
                            -8.1465625762939453e-01 2.2837705910205841e-01
                        </leafValues>
                    </_>
                    <_>
                        <internalNodes>
                            0 -1 9 -1507141633 -7343203 -113389057 -573573929
                            -1642333185 -1321221 -1412694017 -1431678465
                        </internalNodes>
                        <leafValues>
                            -6.1394834518432617e-01 4.3566358089447021e-01
                        </leafValues>
                    </_>
                    <_>
                        <internalNodes>
                            0 -1 43 -1073495038 -2853 -82581769 -606612625 -606339137
                            -72640901 -341050369 -1038371034
                        </internalNodes>
                        <leafValues>
                            -5.2064621448516846e-01 4.7976040840148926e-01
                        </leafValues>
                    </_>
                    <_>
                        <internalNodes>
                            0 -1 62 -135885612 529805704 298484244 920392908 -28559128
                            777782177 999305692 2147483647
                        </internalNodes>
                        <leafValues>
                            -7.0010310411453247e-01 3.6038365960121155e-01
                        </leafValues>
                    </_>
                    <_>
                        <internalNodes>
                            0 -1 56 -1476387375 -136880171 -208415265 1071579615
                            -1096107009 -91516129 -1417023009 -1949689205
                        </internalNodes>
                        <leafValues>
                            -5.1974207162857056e-01 5.1041185855865479e-01
                        </leafValues>
                    </_>
                    <_>
                        <internalNodes>
                            0 -1 3 -822612609 -1358954772 -822083842 1660874223
                            1207926639 1207564799 -134281370 -143661069
                        </internalNodes>
                        <leafValues>
                            -4.8217108845710754e-01 5.6296747922897339e-01
                        </leafValues>
                    </_>
                </weakClassifiers>
            </_>
            <!-- stage 7 -->
            <_>
                <maxWeakCount>6</maxWeakCount>
                <stageThreshold>-1.8626523017883301e+00</stageThreshold>
                <weakClassifiers>
                    <_>
                        <internalNodes>
                            0 -1 72 -2097153 -673201345 -38539080 -2632705 -74712579
                            -1078337813 -3680004 -1
                        </internalNodes>
                        <leafValues>
                            -7.6287704706192017e-01 4.1739130020141602e-01
                        </leafValues>
                    </_>
                    <_>
                        <internalNodes>
                            0 -1 20 -1757626404 -2343971 -1240617255 -1078094788
                            -100931393 -537229059 -1715950593 -1077279348
                        </internalNodes>
                        <leafValues>
                            -6.8593508005142212e-01 3.2849562168121338e-01
                        </leafValues>
                    </_>
                    <_>
                        <internalNodes>
                            0 -1 29 -1874832299 -134277123 -35192867 2136963895
                            -1214578694 -72354821 -1730216962 -1164375462
                        </internalNodes>
                        <leafValues>
                            -5.7691979408264160e-01 4.2346912622451782e-01
                        </leafValues>
                    </_>
                    <_>
                        <internalNodes>
                            0 -1 37 -502366206 -206838497 -270797493 -135531961
                            1133506426 -341056321 -339740689 1110963298
                        </internalNodes>
                        <leafValues>
                            -6.5283167362213135e-01 3.7795272469520569e-01
                        </leafValues>
                    </_>
                    <_>
                        <internalNodes>
                            0 -1 45 -2179208 1003520140 -1248455684 431765748 769550780
                            512239633 499957580 -16897
                        </internalNodes>
                        <leafValues>
                            -5.9259629249572754e-01 4.3672022223472595e-01
                        </leafValues>
                    </_>
                    <_>
                        <internalNodes>
                            0 -1 52 -69209650 986599794 29757644 120537567 -409832144
                            3474562 1393031043 2146434047
                        </internalNodes>
                        <leafValues>
                            -6.5159326791763306e-01 3.9467871189117432e-01
                        </leafValues>
                    </_>
                </weakClassifiers>
            </_>
            <!-- stage 8 -->
            <_>
                <maxWeakCount>7</maxWeakCount>
                <stageThreshold>-1.7281947135925293e+00</stageThreshold>
                <weakClassifiers>
                    <_>
                        <internalNodes>
                            0 -1 68 -249 -2131617 -1979723553 -2100513 -201596153
                            -4201225 -23069778 -1
                        </internalNodes>
                        <leafValues>
                            -7.8471368551254272e-01 2.0730397105216980e-01
                        </leafValues>
                    </_>
                    <_>
                        <internalNodes>
                            0 -1 10 -1433745670 -2123013 -552086017 -4769953 -1414802945
                            -5989 -271581441 -1414542677
                        </internalNodes>
                        <leafValues>
                            -6.2207567691802979e-01 3.5091257095336914e-01
                        </leafValues>
                    </_>
                    <_>
                        <internalNodes>
                            0 -1 42 486540696 534626157 -1663657063 2139085657
                            1509695116 2140080764 -822199297 1608392700
                        </internalNodes>
                        <leafValues>
                            -7.8283333778381348e-01 2.6229289174079895e-01
                        </leafValues>
                    </_>
                    <_>
                        <internalNodes>
                            0 -1 5 -17105718 -260642853 1577565658 -86835554 1930818167
                            2001951163 -135529489 -76087585
                        </internalNodes>
                        <leafValues>
                            -5.6363433599472046e-01 3.7392640113830566e-01
                        </leafValues>
                    </_>
                    <_>
                        <internalNodes>
                            0 -1 41 277877073 -2133290 -539239945 2140658903 -1090855213
                            -67407333 -1408565761 -1178858820
                        </internalNodes>
                        <leafValues>
                            -5.9322065114974976e-01 3.6308953166007996e-01
                        </leafValues>
                    </_>
                    <_>
                        <internalNodes>
                            0 -1 22 -269490098 180797711 201508038 1418642846 496493417
                            1329526715 1215554533 -58785793
                        </internalNodes>
                        <leafValues>
                            -6.2529015541076660e-01 3.6016988754272461e-01
                        </leafValues>
                    </_>
                    <_>
                        <internalNodes>
                            0 -1 44 -269713412 2073064200 1397792636 983046480
                            1073004540 1012691077 457059036 -2204673
                        </internalNodes>
                        <leafValues>
                            -6.7646765708923340e-01 3.0180293321609497e-01
                        </leafValues>
                    </_>
                </weakClassifiers>
            </_>
            <!-- stage 9 -->
            <_>
                <maxWeakCount>7</maxWeakCount>
                <stageThreshold>-1.6127756834030151e+00</stageThreshold>
                <weakClassifiers>
                    <_>
                        <internalNodes>
                            0 -1 21 -14680065 867693551 -552378977 -69209765 -7603537
                            -109067129 -73400321 -67109889
                        </internalNodes>
                        <leafValues>
                            -7.3142987489700317e-01 5.3965181112289429e-01
                        </leafValues>
                    </_>
                    <_>
                        <internalNodes>
                            0 -1 69 -42210034 258992639 -123830998 -257430593 -357764350
                            2104600811 -203955456 -201326597
                        </internalNodes>
                        <leafValues>
                            -6.7537915706634521e-01 2.8178074955940247e-01
                        </leafValues>
                    </_>
                    <_>
                        <internalNodes>
                            0 -1 31 2010114047 -542340 475446031 998059563 534190846
                            -1078253408 241053099 262086666
                        </internalNodes>
                        <leafValues>
                            -5.2260828018188477e-01 4.3325239419937134e-01
                        </leafValues>
                    </_>
                    <_>
                        <internalNodes>
                            0 -1 61 -1073266686 -77594749 -713657921 -6292997 -79696897
                            -74718501 1877736959 -1071397853
                        </internalNodes>
                        <leafValues>
                            -4.9837785959243774e-01 4.2742922902107239e-01
                        </leafValues>
                    </_>
                    <_>
                        <internalNodes>
                            0 -1 53 -1349202312 2136625241 1595473791 916410781
                            764955353 -75294315 -1680933380 195042596
                        </internalNodes>
                        <leafValues>
                            -7.6892495155334473e-01 3.2668128609657288e-01
                        </leafValues>
                    </_>
                    <_>
                        <internalNodes>
                            0 -1 15 -290526466 -431856933 -700395874 2119367839
                            1259096756 -886339029 -607129957 -556542985
                        </internalNodes>
                        <leafValues>
                            -6.0653805732727051e-01 3.3850288391113281e-01
                        </leafValues>
                    </_>
                    <_>
                        <internalNodes>
                            0 -1 33 -3493986 -1143151944 -619575820 454615512 1040723356
                            2098202724 467600304 2138568703
                        </internalNodes>
                        <leafValues>
                            -6.3722121715545654e-01 3.0881470441818237e-01
                        </leafValues>
                    </_>
                </weakClassifiers>
            </_>
            <!-- stage 10 -->
            <_>
                <maxWeakCount>7</maxWeakCount>
                <stageThreshold>-1.7628401517868042e+00</stageThreshold>
                <weakClassifiers>
                    <_>
                        <internalNodes>
                            0 -1 13 -8737 276359679 -39862785 -37888801 -70528065
                            -68742213 -266305 -1052673
                        </internalNodes>
                        <leafValues>
                            -7.9267978668212891e-01 8.8746570050716400e-02
                        </leafValues>
                    </_>
                    <_>
                        <internalNodes>
                            0 -1 64 -1070611449 -134483077 -1954030593 -673187753
                            -212863489 -1081374845 -73403393 -1072463613
                        </internalNodes>
                        <leafValues>
                            -5.5460536479949951e-01 3.4248790144920349e-01
                        </leafValues>
                    </_>
                    <_>
                        <internalNodes>
                            0 -1 23 -2113404896 -2649605 -359730721 -1852929 -469787649
                            -67157191 -1969848321 -1438774901
                        </internalNodes>
                        <leafValues>
                            -6.7505115270614624e-01 3.0004721879959106e-01
                        </leafValues>
                    </_>
                    <_>
                        <internalNodes>
                            0 -1 16 132031206 -1658004 -726090499 920912584 -341118977
                            -9769991 -71307521 -1963323796
                        </internalNodes>
                        <leafValues>
                            -7.3672169446945190e-01 2.5475102663040161e-01
                        </leafValues>
                    </_>
                    <_>
                        <internalNodes>
                            0 -1 63 -936950782 -570497785 -2075456115 -223884414
                            -416614449 -636557175 1737212334 1125114634
                        </internalNodes>
                        <leafValues>
                            -5.5246764421463013e-01 3.5323989391326904e-01
                        </leafValues>
                    </_>
                    <_>
                        <internalNodes>
                            0 -1 27 1976889840 -614976028 -1620993221 -170536483
                            -1550927062 -326663799 2031746046 36253188
                        </internalNodes>
                        <leafValues>
                            -6.3487142324447632e-01 3.0843129754066467e-01
                        </leafValues>
                    </_>
                    <_>
                        <internalNodes>
                            0 -1 46 221702 -207642661 2098714623 2077848150 -875861042
                            -69240681 -85210117 4976819
                        </internalNodes>
                        <leafValues>
                            -6.8010747432708740e-01 2.9026326537132263e-01
                        </leafValues>
                    </_>
                </weakClassifiers>
            </_>
            <!-- stage 11 -->
            <_>
                <maxWeakCount>7</maxWeakCount>
                <stageThreshold>-1.5571787357330322e+00</stageThreshold>
                <weakClassifiers>
                    <_>
                        <internalNodes>
                            0 -1 6 -16780033 -186646785 -12074537 -262689 -618931713
                            -153395237 -39071749 -5
                        </internalNodes>
                        <leafValues>
                            -7.5963824987411499e-01 2.4060150980949402e-01
                        </leafValues>
                    </_>
                    <_>
                        <internalNodes>
                            0 -1 73 -33558613 -1347946553 -773064928 -639641121
                            -67389855 -2085663285 -72625344 -170655777
                        </internalNodes>
                        <leafValues>
                            -6.0096567869186401e-01 2.8572970628738403e-01
                        </leafValues>
                    </_>
                    <_>
                        <internalNodes>
                            0 -1 49 -148482 2113678288 496506644 1073286068 1072278460
                            799811644 803212028 2147414015
                        </internalNodes>
                        <leafValues>
                            -6.0729080438613892e-01 2.8323534131050110e-01
                        </leafValues>
                    </_>
                    <_>
                        <internalNodes>
                            0 -1 2 -296751134 1120586894 -570269729 -1348041106
                            1859116987 1694469919 1607467005 -150997121
                        </internalNodes>
                        <leafValues>
                            -5.8631265163421631e-01 3.1095129251480103e-01
                        </leafValues>
                    </_>
                    <_>
                        <internalNodes>
                            0 -1 57 -1602201468 -75369 -547628097 -75820831 -400359430
                            -272958053 -1656807521 346122340
                        </internalNodes>
                        <leafValues>
                            -7.1756631135940552e-01 2.7594032883644104e-01
                        </leafValues>
                    </_>
                    <_>
                        <internalNodes>
                            0 -1 59 -298062078 -476261865 -40439648 1187497476
                            1542767100 1129310238 -505686606 -780665089
                        </internalNodes>
                        <leafValues>
                            -4.8981761932373047e-01 3.7094607949256897e-01
                        </leafValues>
                    </_>
                    <_>
                        <internalNodes>
                            0 -1 18 -2297507 -1243709217 -1694856707 1069070661
                            -846446110 1997492830 -105285637 -1083785762
                        </internalNodes>
                        <leafValues>
                            -4.3357267975807190e-01 4.3053877353668213e-01
                        </leafValues>
                    </_>
                </weakClassifiers>
            </_>
            <!-- stage 12 -->
            <_>
                <maxWeakCount>7</maxWeakCount>
                <stageThreshold>-1.3630626201629639e+00</stageThreshold>
                <weakClassifiers>
                    <_>
                        <internalNodes>
                            0 -1 66 -737 -603991457 -231219201 -271873 -51384833
                            -72618765 -18879489 -71303329
                        </internalNodes>
                        <leafValues>
                            -7.3578828573226929e-01 3.0076336860656738e-01
                        </leafValues>
                    </_>
                    <_>
                        <internalNodes>
                            0 -1 26 -335294782 -683154449 -203236229 -2099774 -288382977
                            -67127045 -1681132545 -139996873
                        </internalNodes>
                        <leafValues>
                            -5.3150010108947754e-01 3.8871529698371887e-01
                        </leafValues>
                    </_>
                    <_>
                        <internalNodes>
                            0 -1 60 514604728 1071183356 322616728 -136446721 979390461
                            1064090064 -540361985 2145344837
                        </internalNodes>
                        <leafValues>
                            -7.1321892738342285e-01 2.4893316626548767e-01
                        </leafValues>
                    </_>
                    <_>
                        <internalNodes>
                            0 -1 7 -890573074 -927799322 -13042178 -723060798 2007103863
                            -382498437 -206637825 -4724225
                        </internalNodes>
                        <leafValues>
                            -5.2917283773422241e-01 3.4854337573051453e-01
                        </leafValues>
                    </_>
                    <_>
                        <internalNodes>
                            0 -1 54 -2147252985 -265 -268435457 -33281 -50364417 -4161
                            -17 -753154533
                        </internalNodes>
                        <leafValues>
                            -3.8975578546524048e-01 4.9460890889167786e-01
                        </leafValues>
                    </_>
                    <_>
                        <internalNodes>
                            0 -1 25 -1074258468 534436306 -1726348036 517619101
                            -1145140611 -304539507 -649413633 -1364021390
                        </internalNodes>
                        <leafValues>
                            -6.0983127355575562e-01 3.3834120631217957e-01
                        </leafValues>
                    </_>
                    <_>
                        <internalNodes>
                            0 -1 65 -1013199328 656568341 -796161686 1074723141
                            -697589363 133630827 1095754402 -747375777
                        </internalNodes>
                        <leafValues>
                            -5.4339373111724854e-01 3.4162449836730957e-01
                        </leafValues>
                    </_>
                </weakClassifiers>
            </_>
        </stages>
        <features>
            <_>
                <rect>
                    0 0 4 1
                </rect>
            </_>
            <_>
                <rect>
                    0 0 14 1
                </rect>
            </_>
            <_>
                <rect>
                    0 1 3 2
                </rect>
            </_>
            <_>
                <rect>
                    0 2 1 3
                </rect>
            </_>
            <_>
                <rect>
                    0 3 5 3
                </rect>
            </_>
            <_>
                <rect>
                    0 6 2 2
                </rect>
            </_>
            <_>
                <rect>
                    0 6 3 2
                </rect>
            </_>
            <_>
                <rect>
                    0 7 2 1
                </rect>
            </_>
            <_>
                <rect>
                    0 10 4 1
                </rect>
            </_>
            <_>
                <rect>
                    1 0 3 1
                </rect>
            </_>
            <_>
                <rect>
                    1 0 5 1
                </rect>
            </_>
            <_>
                <rect>
                    1 1 14 1
                </rect>
            </_>
            <_>
                <rect>
                    1 4 2 1
                </rect>
            </_>
            <_>
                <rect>
                    1 4 2 3
                </rect>
            </_>
            <_>
                <rect>
                    1 6 2 2
                </rect>
            </_>
            <_>
                <rect>
                    1 9 4 1
                </rect>
            </_>
            <_>
                <rect>
                    1 10 12 1
                </rect>
            </_>
            <_>
                <rect>
                    1 10 15 1
                </rect>
            </_>
            <_>
                <rect>
                    2 10 3 1
                </rect>
            </_>
            <_>
                <rect>
                    2 10 8 1
                </rect>
            </_>
            <_>
                <rect>
                    2 10 16 1
                </rect>
            </_>
            <_>
                <rect>
                    3 1 1 3
                </rect>
            </_>
            <_>
                <rect>
                    3 5 2 2
                </rect>
            </_>
            <_>
                <rect>
                    4 0 5 1
                </rect>
            </_>
            <_>
                <rect>
                    4 2 1 2
                </rect>
            </_>
            <_>
                <rect>
                    4 10 2 1
                </rect>
            </_>
            <_>
                <rect>
                    5 1 1 1
                </rect>
            </_>
            <_>
                <rect>
                    5 1 15 1
                </rect>
            </_>
            <_>
                <rect>
                    6 0 14 1
                </rect>
            </_>
            <_>
                <rect>
                    9 0 3 1
                </rect>
            </_>
            <_>
                <rect>
                    9 0 5 1
                </rect>
            </_>
            <_>
                <rect>
                    9 2 12 1
                </rect>
            </_>
            <_>
                <rect>
                    10 9 10 1
                </rect>
            </_>
            <_>
                <rect>
                    11 4 1 3
                </rect>
            </_>
            <_>
                <rect>
                    12 10 7 1
                </rect>
            </_>
            <_>
                <rect>
                    13 0 9 1
                </rect>
            </_>
            <_>
                <rect>
                    14 0 1 3
                </rect>
            </_>
            <_>
                <rect>
                    15 0 1 3
                </rect>
            </_>
            <_>
                <rect>
                    15 0 12 1
                </rect>
            </_>
            <_>
                <rect>
                    16 0 8 1
                </rect>
            </_>
            <_>
                <rect>
                    16 10 10 1
                </rect>
            </_>
            <_>
                <rect>
                    17 0 5 1
                </rect>
            </_>
            <_>
                <rect>
                    17 9 8 1
                </rect>
            </_>
            <_>
                <rect>
                    20 0 1 2
                </rect>
            </_>
            <_>
                <rect>
                    21 7 1 2
                </rect>
            </_>
            <_>
                <rect>
                    22 7 1 2
                </rect>
            </_>
            <_>
                <rect>
                    23 0 2 2
                </rect>
            </_>
            <_>
                <rect>
                    23 0 8 1
                </rect>
            </_>
            <_>
                <rect>
                    24 4 2 3
                </rect>
            </_>
            <_>
                <rect>
                    25 7 2 2
                </rect>
            </_>
            <_>
                <rect>
                    27 0 1 2
                </rect>
            </_>
            <_>
                <rect>
                    27 9 6 1
                </rect>
            </_>
            <_>
                <rect>
                    28 3 2 3
                </rect>
            </_>
            <_>
                <rect>
                    28 10 5 1
                </rect>
            </_>
            <_>
                <rect>
                    29 0 1 2
                </rect>
            </_>
            <_>
                <rect>
                    30 0 7 1
                </rect>
            </_>
            <_>
                <rect>
                    31 0 4 1
                </rect>
            </_>
            <_>
                <rect>
                    32 1 3 1
                </rect>
            </_>
            <_>
                <rect>
                    33 2 2 3
                </rect>
            </_>
            <_>
                <rect>
                    35 6 1 1
                </rect>
            </_>
            <_>
                <rect>
                    35 9 3 1
                </rect>
            </_>
            <_>
                <rect>
                    36 0 1 2
                </rect>
            </_>
            <_>
                <rect>
                    37 4 1 3
                </rect>
            </_>
            <_>
                <rect>
                    39 1 1 2
                </rect>
            </_>
            <_>
                <rect>
                    41 0 1 2
                </rect>
            </_>
            <_>
                <rect>
                    42 6 1 1
                </rect>
            </_>
            <_>
                <rect>
                    49 0 1 1
                </rect>
            </_>
            <_>
                <rect>
                    49 0 1 2
                </rect>
            </_>
            <_>
                <rect>
                    49 1 1 1
                </rect>
            </_>
            <_>
                <rect>
                    49 2 1 1
                </rect>
            </_>
            <_>
                <rect>
                    49 3 1 2
                </rect>
            </_>
            <_>
                <rect>
                    49 4 1 2
                </rect>
            </_>
            <_>
                <rect>
                    49 7 1 2
                </rect>
            </_>
            <_>
                <rect>
                    49 8 1 1
                </rect>
            </_>
        </features>
    </cascade>
</opencv_storage>
