<?xml version="1.0"?>
<opencv_storage>
    <stage8>
        <maxWeakCount>7</maxWeakCount>
        <stageThreshold>-1.7281947135925293e+00</stageThreshold>
        <weakClassifiers>
            <_>
                <internalNodes>
                    0 -1 11470 -249 -2131617 -1979723553 -2100513 -201596153
                    -4201225 -23069778 -1
                </internalNodes>
                <leafValues>
                    -7.8471368551254272e-01 2.0730397105216980e-01
                </leafValues>
            </_>
            <_>
                <internalNodes>
                    0 -1 458 -1433745670 -2123013 -552086017 -4769953 -1414802945
                    -5989 -271581441 -1414542677
                </internalNodes>
                <leafValues>
                    -6.2207567691802979e-01 3.5091257095336914e-01
                </leafValues>
            </_>
            <_>
                <internalNodes>
                    0 -1 6615 486540696 534626157 -1663657063 2139085657 1509695116
                    2140080764 -822199297 1608392700
                </internalNodes>
                <leafValues>
                    -7.8283333778381348e-01 2.6229289174079895e-01
                </leafValues>
            </_>
            <_>
                <internalNodes>
                    0 -1 326 -17105718 -260642853 1577565658 -86835554 1930818167
                    2001951163 -135529489 -76087585
                </internalNodes>
                <leafValues>
                    -5.6363433599472046e-01 3.7392640113830566e-01
                </leafValues>
            </_>
            <_>
                <internalNodes>
                    0 -1 6360 277877073 -2133290 -539239945 2140658903 -1090855213
                    -67407333 -1408565761 -1178858820
                </internalNodes>
                <leafValues>
                    -5.9322065114974976e-01 3.6308953166007996e-01
                </leafValues>
            </_>
            <_>
                <internalNodes>
                    0 -1 1575 -269490098 180797711 201508038 1418642846 496493417
                    1329526715 1215554533 -58785793
                </internalNodes>
                <leafValues>
                    -6.2529015541076660e-01 3.6016988754272461e-01
                </leafValues>
            </_>
            <_>
                <internalNodes>
                    0 -1 7673 -269713412 2073064200 1397792636 983046480 1073004540
                    1012691077 457059036 -2204673
                </internalNodes>
                <leafValues>
                    -6.7646765708923340e-01 3.0180293321609497e-01
                </leafValues>
            </_>
        </weakClassifiers>
    </stage8>
</opencv_storage>
