<?xml version="1.0"?>
<opencv_storage>
    <stage12>
        <maxWeakCount>7</maxWeakCount>
        <stageThreshold>-1.3630626201629639e+00</stageThreshold>
        <weakClassifiers>
            <_>
                <internalNodes>
                    0 -1 11466 -737 -603991457 -231219201 -271873 -51384833
                    -72618765 -18879489 -71303329
                </internalNodes>
                <leafValues>
                    -7.3578828573226929e-01 3.0076336860656738e-01
                </leafValues>
            </_>
            <_>
                <internalNodes>
                    0 -1 2192 -335294782 -683154449 -203236229 -2099774 -288382977
                    -67127045 -1681132545 -139996873
                </internalNodes>
                <leafValues>
                    -5.3150010108947754e-01 3.8871529698371887e-01
                </leafValues>
            </_>
            <_>
                <internalNodes>
                    0 -1 10444 514604728 1071183356 322616728 -136446721 979390461
                    1064090064 -540361985 2145344837
                </internalNodes>
                <leafValues>
                    -7.1321892738342285e-01 2.4893316626548767e-01
                </leafValues>
            </_>
            <_>
                <internalNodes>
                    0 -1 359 -890573074 -927799322 -13042178 -723060798 2007103863
                    -382498437 -206637825 -4724225
                </internalNodes>
                <leafValues>
                    -5.2917283773422241e-01 3.4854337573051453e-01
                </leafValues>
            </_>
            <_>
                <internalNodes>
                    0 -1 9309 -2147252985 -265 -268435457 -33281 -50364417 -4161 -17
                    -753154533
                </internalNodes>
                <leafValues>
                    -3.8975578546524048e-01 4.9460890889167786e-01
                </leafValues>
            </_>
            <_>
                <internalNodes>
                    0 -1 2117 -1074258468 534436306 -1726348036 517619101
                    -1145140611 -304539507 -649413633 -1364021390
                </internalNodes>
                <leafValues>
                    -6.0983127355575562e-01 3.3834120631217957e-01
                </leafValues>
            </_>
            <_>
                <internalNodes>
                    0 -1 11159 -1013199328 656568341 -796161686 1074723141
                    -697589363 133630827 1095754402 -747375777
                </internalNodes>
                <leafValues>
                    -5.4339373111724854e-01 3.4162449836730957e-01
                </leafValues>
            </_>
        </weakClassifiers>
    </stage12>
</opencv_storage>
