<?xml version="1.0"?>
<opencv_storage>
    <stage9>
        <maxWeakCount>7</maxWeakCount>
        <stageThreshold>-1.6127756834030151e+00</stageThreshold>
        <weakClassifiers>
            <_>
                <internalNodes>
                    0 -1 1366 -14680065 867693551 -552378977 -69209765 -7603537
                    -109067129 -73400321 -67109889
                </internalNodes>
                <leafValues>
                    -7.3142987489700317e-01 5.3965181112289429e-01
                </leafValues>
            </_>
            <_>
                <internalNodes>
                    0 -1 11474 -42210034 258992639 -123830998 -257430593 -357764350
                    2104600811 -203955456 -201326597
                </internalNodes>
                <leafValues>
                    -6.7537915706634521e-01 2.8178074955940247e-01
                </leafValues>
            </_>
            <_>
                <internalNodes>
                    0 -1 3811 2010114047 -542340 475446031 998059563 534190846
                    -1078253408 241053099 262086666
                </internalNodes>
                <leafValues>
                    -5.2260828018188477e-01 4.3325239419937134e-01
                </leafValues>
            </_>
            <_>
                <internalNodes>
                    0 -1 10453 -1073266686 -77594749 -713657921 -6292997 -79696897
                    -74718501 1877736959 -1071397853
                </internalNodes>
                <leafValues>
                    -4.9837785959243774e-01 4.2742922902107239e-01
                </leafValues>
            </_>
            <_>
                <internalNodes>
                    0 -1 9304 -1349202312 2136625241 1595473791 916410781 764955353
                    -75294315 -1680933380 195042596
                </internalNodes>
                <leafValues>
                    -7.6892495155334473e-01 3.2668128609657288e-01
                </leafValues>
            </_>
            <_>
                <internalNodes>
                    0 -1 853 -290526466 -431856933 -700395874 2119367839 1259096756
                    -886339029 -607129957 -556542985
                </internalNodes>
                <leafValues>
                    -6.0653805732727051e-01 3.3850288391113281e-01
                </leafValues>
            </_>
            <_>
                <internalNodes>
                    0 -1 4578 -3493986 -1143151944 -619575820 454615512 1040723356
                    2098202724 467600304 2138568703
                </internalNodes>
                <leafValues>
                    -6.3722121715545654e-01 3.0881470441818237e-01
                </leafValues>
            </_>
        </weakClassifiers>
    </stage9>
</opencv_storage>
