<?xml version="1.0"?>
<opencv_storage>
    <stage10>
        <maxWeakCount>7</maxWeakCount>
        <stageThreshold>-1.7628401517868042e+00</stageThreshold>
        <weakClassifiers>
            <_>
                <internalNodes>
                    0 -1 685 -8737 276359679 -39862785 -37888801 -70528065 -68742213
                    -266305 -1052673
                </internalNodes>
                <leafValues>
                    -7.9267978668212891e-01 8.8746570050716400e-02
                </leafValues>
            </_>
            <_>
                <internalNodes>
                    0 -1 11025 -1070611449 -134483077 -1954030593 -673187753
                    -212863489 -1081374845 -73403393 -1072463613
                </internalNodes>
                <leafValues>
                    -5.5460536479949951e-01 3.4248790144920349e-01
                </leafValues>
            </_>
            <_>
                <internalNodes>
                    0 -1 1732 -2113404896 -2649605 -359730721 -1852929 -469787649
                    -67157191 -1969848321 -1438774901
                </internalNodes>
                <leafValues>
                    -6.7505115270614624e-01 3.0004721879959106e-01
                </leafValues>
            </_>
            <_>
                <internalNodes>
                    0 -1 878 132031206 -1658004 -726090499 920912584 -341118977
                    -9769991 -71307521 -1963323796
                </internalNodes>
                <leafValues>
                    -7.3672169446945190e-01 2.5475102663040161e-01
                </leafValues>
            </_>
            <_>
                <internalNodes>
                    0 -1 10833 -936950782 -570497785 -2075456115 -223884414
                    -416614449 -636557175 1737212334 1125114634
                </internalNodes>
                <leafValues>
                    -5.5246764421463013e-01 3.5323989391326904e-01
                </leafValues>
            </_>
            <_>
                <internalNodes>
                    0 -1 2248 1976889840 -614976028 -1620993221 -170536483
                    -1550927062 -326663799 2031746046 36253188
                </internalNodes>
                <leafValues>
                    -6.3487142324447632e-01 3.0843129754066467e-01
                </leafValues>
            </_>
            <_>
                <internalNodes>
                    0 -1 7987 221702 -207642661 2098714623 2077848150 -875861042
                    -69240681 -85210117 4976819
                </internalNodes>
                <leafValues>
                    -6.8010747432708740e-01 2.9026326537132263e-01
                </leafValues>
            </_>
        </weakClassifiers>
    </stage10>
</opencv_storage>
