<?xml version="1.0"?>
<opencv_storage>
    <stage11>
        <maxWeakCount>7</maxWeakCount>
        <stageThreshold>-1.5571787357330322e+00</stageThreshold>
        <weakClassifiers>
            <_>
                <internalNodes>
                    0 -1 328 -16780033 -186646785 -12074537 -262689 -618931713
                    -153395237 -39071749 -5
                </internalNodes>
                <leafValues>
                    -7.5963824987411499e-01 2.4060150980949402e-01
                </leafValues>
            </_>
            <_>
                <internalNodes>
                    0 -1 11489 -33558613 -1347946553 -773064928 -639641121 -67389855
                    -2085663285 -72625344 -170655777
                </internalNodes>
                <leafValues>
                    -6.0096567869186401e-01 2.8572970628738403e-01
                </leafValues>
            </_>
            <_>
                <internalNodes>
                    0 -1 8642 -148482 2113678288 496506644 1073286068 1072278460
                    799811644 803212028 2147414015
                </internalNodes>
                <leafValues>
                    -6.0729080438613892e-01 2.8323534131050110e-01
                </leafValues>
            </_>
            <_>
                <internalNodes>
                    0 -1 77 -296751134 1120586894 -570269729 -1348041106 1859116987
                    1694469919 1607467005 -150997121
                </internalNodes>
                <leafValues>
                    -5.8631265163421631e-01 3.1095129251480103e-01
                </leafValues>
            </_>
            <_>
                <internalNodes>
                    0 -1 9886 -1602201468 -75369 -547628097 -75820831 -400359430
                    -272958053 -1656807521 346122340
                </internalNodes>
                <leafValues>
                    -7.1756631135940552e-01 2.7594032883644104e-01
                </leafValues>
            </_>
            <_>
                <internalNodes>
                    0 -1 10417 -298062078 -476261865 -40439648 1187497476 1542767100
                    1129310238 -505686606 -780665089
                </internalNodes>
                <leafValues>
                    -4.8981761932373047e-01 3.7094607949256897e-01
                </leafValues>
            </_>
            <_>
                <internalNodes>
                    0 -1 1286 -2297507 -1243709217 -1694856707 1069070661 -846446110
                    1997492830 -105285637 -1083785762
                </internalNodes>
                <leafValues>
                    -4.3357267975807190e-01 4.3053877353668213e-01
                </leafValues>
            </_>
        </weakClassifiers>
    </stage11>
</opencv_storage>
