<?xml version="1.0"?>
<opencv_storage>
    <stage3>
        <maxWeakCount>10</maxWeakCount>
        <stageThreshold>-2.0364134311676025e+00</stageThreshold>
        <weakClassifiers>
            <_>
                <internalNodes>
                    0 -1 63438 -5.6537620723247528e-02
                </internalNodes>
                <leafValues>
                    5.5882352590560913e-01 -7.6162260770797729e-01
                </leafValues>
            </_>
            <_>
                <internalNodes>
                    0 -1 1429 4.4308945536613464e-02
                </internalNodes>
                <leafValues>
                    -6.2703663110733032e-01 3.5495832562446594e-01
                </leafValues>
            </_>
            <_>
                <internalNodes>
                    0 -1 55679 4.1327446699142456e-02
                </internalNodes>
                <leafValues>
                    -3.1692841649055481e-01 7.7173852920532227e-01
                </leafValues>
            </_>
            <_>
                <internalNodes>
                    0 -1 128697 3.9912890642881393e-02
                </internalNodes>
                <leafValues>
                    -2.1648672223091125e-01 6.7750960588455200e-01
                </leafValues>
            </_>
            <_>
                <internalNodes>
                    0 -1 82565 2.1520459558814764e-03
                </internalNodes>
                <leafValues>
                    -2.5401586294174194e-01 5.8041709661483765e-01
                </leafValues>
            </_>
            <_>
                <internalNodes>
                    0 -1 149096 2.7919787680730224e-04
                </internalNodes>
                <leafValues>
                    2.0139564573764801e-01 -8.0410045385360718e-01
                </leafValues>
            </_>
            <_>
                <internalNodes>
                    0 -1 93886 9.2465877532958984e-03
                </internalNodes>
                <leafValues>
                    -2.1580499410629272e-01 7.6816594600677490e-01
                </leafValues>
            </_>
            <_>
                <internalNodes>
                    0 -1 89283 4.2985789477825165e-03
                </internalNodes>
                <leafValues>
                    -1.9991175830364227e-01 6.3624143600463867e-01
                </leafValues>
            </_>
            <_>
                <internalNodes>
                    0 -1 91184 -1.0959097417071462e-03
                </internalNodes>
                <leafValues>
                    -7.4023443460464478e-01 2.1480679512023926e-01
                </leafValues>
            </_>
            <_>
                <internalNodes>
                    0 -1 21863 -3.9005711674690247e-02
                </internalNodes>
                <leafValues>
                    -8.4829819202423096e-01 1.3919112086296082e-01
                </leafValues>
            </_>
        </weakClassifiers>
    </stage3>
</opencv_storage>
