<?xml version="1.0"?>
<opencv_storage>
    <stage9>
        <maxWeakCount>17</maxWeakCount>
        <stageThreshold>-2.1008059978485107e+00</stageThreshold>
        <weakClassifiers>
            <_>
                <internalNodes>
                    0 -1 8713 8.4474533796310425e-03
                </internalNodes>
                <leafValues>
                    -7.4832797050476074e-01 2.1806852892041206e-02
                </leafValues>
            </_>
            <_>
                <internalNodes>
                    0 -1 223537 2.2457148588728160e-05
                </internalNodes>
                <leafValues>
                    -5.4400634765625000e-01 1.7545241117477417e-01
                </leafValues>
            </_>
            <_>
                <internalNodes>
                    0 -1 145882 -3.6985054612159729e-03
                </internalNodes>
                <leafValues>
                    2.8864258527755737e-01 -3.9213210344314575e-01
                </leafValues>
            </_>
            <_>
                <internalNodes>
                    0 -1 167556 -8.2618591841310263e-04
                </internalNodes>
                <leafValues>
                    3.5121566057205200e-01 -2.9661437869071960e-01
                </leafValues>
            </_>
            <_>
                <internalNodes>
                    0 -1 122052 -3.3011842519044876e-02
                </internalNodes>
                <leafValues>
                    -7.8895103931427002e-01 1.6834488511085510e-01
                </leafValues>
            </_>
            <_>
                <internalNodes>
                    0 -1 181766 1.3445087242871523e-03
                </internalNodes>
                <leafValues>
                    -2.4117001891136169e-01 4.6550747752189636e-01
                </leafValues>
            </_>
            <_>
                <internalNodes>
                    0 -1 4369 6.6879436373710632e-02
                </internalNodes>
                <leafValues>
                    1.4201486110687256e-01 -8.6364948749542236e-01
                </leafValues>
            </_>
            <_>
                <internalNodes>
                    0 -1 199759 -3.0380088719539344e-04
                </internalNodes>
                <leafValues>
                    -7.9719746112823486e-01 7.3803737759590149e-02
                </leafValues>
            </_>
            <_>
                <internalNodes>
                    0 -1 101073 1.9691369961947203e-03
                </internalNodes>
                <leafValues>
                    -1.8129211664199829e-01 5.5343496799468994e-01
                </leafValues>
            </_>
            <_>
                <internalNodes>
                    0 -1 107979 1.1654199333861470e-03
                </internalNodes>
                <leafValues>
                    -2.3551534116268158e-01 3.9081665873527527e-01
                </leafValues>
            </_>
            <_>
                <internalNodes>
                    0 -1 114053 5.4531404748558998e-04
                </internalNodes>
                <leafValues>
                    -2.3826158046722412e-01 3.8042104244232178e-01
                </leafValues>
            </_>
            <_>
                <internalNodes>
                    0 -1 179849 9.2676759231835604e-04
                </internalNodes>
                <leafValues>
                    1.4524783194065094e-01 -6.2218087911605835e-01
                </leafValues>
            </_>
            <_>
                <internalNodes>
                    0 -1 23332 1.1166220530867577e-02
                </internalNodes>
                <leafValues>
                    -3.2869663834571838e-01 2.8690579533576965e-01
                </leafValues>
            </_>
            <_>
                <internalNodes>
                    0 -1 96804 1.6667188610881567e-03
                </internalNodes>
                <leafValues>
                    -1.8391264975070953e-01 5.0698500871658325e-01
                </leafValues>
            </_>
            <_>
                <internalNodes>
                    0 -1 215405 5.7288201060146093e-04
                </internalNodes>
                <leafValues>
                    -2.6030024886131287e-01 3.5533627867698669e-01
                </leafValues>
            </_>
            <_>
                <internalNodes>
                    0 -1 212358 -1.3124201446771622e-02
                </internalNodes>
                <leafValues>
                    4.9285900592803955e-01 -1.8556194007396698e-01
                </leafValues>
            </_>
            <_>
                <internalNodes>
                    0 -1 152961 2.1248050034046173e-03
                </internalNodes>
                <leafValues>
                    -1.8187813460826874e-01 4.6632120013237000e-01
                </leafValues>
            </_>
        </weakClassifiers>
    </stage9>
</opencv_storage>
